digraph Tree {
node [shape=box] ;
0 [label="X[0] <= 0.321\ngini = 0.698\nsamples = 24\nvalue = [10, 4, 7, 3]"] ;
1 [label="gini = 0.0\nsamples = 10\nvalue = [10, 0, 0, 0]"] ;
0 -> 1 [labeldistance=2.5, labelangle=45, headlabel="True"] ;
2 [label="X[10] <= 0.723\ngini = 0.622\nsamples = 14\nvalue = [0, 4, 7, 3]"] ;
0 -> 2 [labeldistance=2.5, labelangle=-45, headlabel="False"] ;
3 [label="X[0] <= 0.731\ngini = 0.49\nsamples = 7\nvalue = [0, 4, 0, 3]"] ;
2 -> 3 ;
4 [label="gini = 0.0\nsamples = 4\nvalue = [0, 4, 0, 0]"] ;
3 -> 4 ;
5 [label="gini = 0.0\nsamples = 3\nvalue = [0, 0, 0, 3]"] ;
3 -> 5 ;
6 [label="gini = 0.0\nsamples = 7\nvalue = [0, 0, 7, 0]"] ;
2 -> 6 ;
}